-4.30055 -1.3093 -0.676235 4.80453 -1.28584 1.5241 2.88242 -1.25771 1.44996 1.80452 
-3.40026 -1.50474 0.573931 1.30363 -2.20645 1.04324 2.77333 -4.00962 -2.53154 -2.09184 
-3.65086 -1.46563 3.07247 1.63617 -4.35811 -2.68943 -4.09394 3.38537 3.76894 4.05778 
-1.25088 0.365092 -3.43956 1.84298 -4.26535 6.37553 2.15917 2.93401 3.4614 -2.49227 
-0.400349 3.31551 2.1417 -2.38032 4.71794 1.99172 3.35474 -0.539787 4.42238 1.95362 
-3.50094 4.18027 -1.24308 0.423017 -1.34719 0.443056 -4.11422 2.81757 -4.0952 0.961262 
1.44911 -0.0417321 -0.209104 -3.08682 2.30115 -4.867 -2.78041 4.36877 4.45921 -1.18955 
3.54988 1.90313 -2.348 3.46064 0.693171 2.06608 1.12074 2.0605 2.58956 -2.74908 
-4.40047 0.89761 -1.61085 0.335928 2.94787 0.198978 -2.89597 -4.23418 -2.85484 -1.78851 
2.54959 -2.56187 5.38319 1.20559 1.34389 0.371049 -4.64461 -0.495987 -0.430189 1.4522 
0.199501 -2.32298 -3.37654 2.15839 2.04442 1.90084 -0.902844 -4.12448 2.2324 4.15282 
4.94846 2.40187 0.720814 -1.35826 6.15729 -3.78241 3.07976 0.822894 0.151643 0.561797 
1.39977 -2.35063 9.14886 1.16952 -0.681177 -2.76345 -1.49695 0.206732 1.86428 1.30176 

3.24985 0.800057 2.9 
0.973681 2.965 -2.28792 
7.51973 -7.66441 4.63638 
-3.51954 0.225123 -5.41258 
3.62174 -3.55882 -5.22383 
-5.70988 -4.29732 4.80347 
3.24396 2.02247 4.21046 
0.933651 1.76629 -3.15629 
-2.88589 1.07558 2.87532 
-2.50815 2.27559 3.62258 

4.20045  

3.89615  

5.56361  

-4.4216  

5.13195  

1.65419  

0.70734  

4.41539  

4.37577  

-4.05378  


0.259626  

0.973386  

0.927538  


